{
    "levels": [
        {
            "inputs": [
                0.38843969168311865,
                0,
                0,
                0.0914360874748239,
                0.4744112544408773
            ],
            "outputs": [
                0,
                1,
                0,
                1,
                1,
                0
            ],
            "biases": [
                7.067138719690912,
                -0.7692261239309257,
                4.092166219953492,
                -4.678416369398679,
                1.151079497367613,
                1.175829657945545
            ],
            "weights": [
                [
                    0.04637664723023591,
                    3.201646354027009,
                    -2.0686556221707724,
                    -1.9285344964657716,
                    3.009016706826319,
                    3.201714024660163
                ],
                [
                    -3.920080945382055,
                    6.554140229711596,
                    -5.077195566313659,
                    0.004441314293563647,
                    5.643448919280828,
                    -1.0739874159397007
                ],
                [
                    -5.163247973195233,
                    0.6211335125932826,
                    -0.7579742426396832,
                    4.313922578778502,
                    -5.792245233909289,
                    1.0838897852902918
                ],
                [
                    -0.168839150395948,
                    -5.242530381476234,
                    -1.8594548689695378,
                    3.855145078739188,
                    1.304868804096885,
                    -5.4536883509109435
                ],
                [
                    -2.364345297441777,
                    -2.7133441079858835,
                    2.5116223138481044,
                    -4.052617637498317,
                    5.316889288737262,
                    -0.47756205909827787
                ]
            ]
        },
        {
            "inputs": [
                0,
                1,
                0,
                1,
                1,
                0
            ],
            "outputs": [
                1,
                0,
                0,
                0
            ],
            "biases": [
                -4.13191737211501,
                -7.347311412085078,
                1.0644154313631518,
                0.18322672970951343
            ],
            "weights": [
                [
                    -1.0114276461691731,
                    -6.435812673259426,
                    -3.7184883829850213,
                    1.6547264651679012
                ],
                [
                    3.329733625874307,
                    -6.229669150285113,
                    5.235858657404844,
                    -6.903457024489121
                ],
                [
                    1.2486587177377284,
                    -0.27505337516458256,
                    -0.3303068608845069,
                    -1.3403993335422015
                ],
                [
                    5.476839439515214,
                    -5.61468984068739,
                    -5.902825529138445,
                    -2.6335335887213267
                ],
                [
                    -6.295914538339353,
                    1.0808776695727846,
                    -3.3077306801082003,
                    4.4998110419041435
                ],
                [
                    -2.961189613789299,
                    -1.017368137649284,
                    7.302765436154237,
                    -2.0761062907600296
                ]
            ]
        }
    ]
}